digraph Tree {
node [shape=box, style="filled, rounded", color="black", fontname=helvetica] ;
edge [fontname=helvetica] ;
0 [label="year <= 2002.0\ngini = 0.5\nsamples = 2\nvalue = [1, 1]\nclass = L'enfant lion", fillcolor="#ffffff"] ;
1 [label="gini = 0.0\nsamples = 1\nvalue = [1, 0]\nclass = L'enfant lion", fillcolor="#e58139"] ;
0 -> 1 [labeldistance=2.5, labelangle=45, headlabel="True"] ;
2 [label="gini = 0.0\nsamples = 1\nvalue = [0, 1]\nclass = La clé des champs", fillcolor="#399de5"] ;
0 -> 2 [labeldistance=2.5, labelangle=-45, headlabel="False"] ;
}